digraph Tree {
node [shape=box, style="filled, rounded", color="black", fontname="helvetica"] ;
edge [fontname="helvetica"] ;
0 [label="genreEncoded <= 2.5\nentropy = 1.0\nsamples = 635\nvalue = [494.0, 493.5]\nclass = No", fillcolor="#ffffff"] ;
1 [label="genreEncoded <= 1.5\nentropy = 0.574\nsamples = 232\nvalue = [222, 35]\nclass = No", fillcolor="#e99558"] ;
0 -> 1 [labeldistance=2.5, labelangle=45, headlabel="True"] ;
2 [label="moodEncoded <= 5.5\nentropy = 0.765\nsamples = 119\nvalue = [110.0, 31.5]\nclass = No", fillcolor="#eca572"] ;
1 -> 2 ;
3 [label="moodEncoded <= 2.5\nentropy = 0.63\nsamples = 98\nvalue = [93.0, 17.5]\nclass = No", fillcolor="#ea995e"] ;
2 -> 3 ;
4 [label="entropy = 0.989\nsamples = 11\nvalue = [9, 7]\nclass = No", fillcolor="#f9e3d3"] ;
3 -> 4 ;
5 [label="entropy = 0.503\nsamples = 87\nvalue = [84.0, 10.5]\nclass = No", fillcolor="#e89152"] ;
3 -> 5 ;
6 [label="durationEncoded <= 2.5\nentropy = 0.993\nsamples = 21\nvalue = [17, 14]\nclass = No", fillcolor="#fae9dc"] ;
2 -> 6 ;
7 [label="entropy = 0.831\nsamples = 9\nvalue = [5, 14]\nclass = Si", fillcolor="#80c0ee"] ;
6 -> 7 ;
8 [label="entropy = 0.0\nsamples = 12\nvalue = [12, 0]\nclass = No", fillcolor="#e58139"] ;
6 -> 8 ;
9 [label="edadEncoded <= 1.5\nentropy = 0.196\nsamples = 113\nvalue = [112.0, 3.5]\nclass = No", fillcolor="#e6853f"] ;
1 -> 9 ;
10 [label="entropy = 0.659\nsamples = 18\nvalue = [17.0, 3.5]\nclass = No", fillcolor="#ea9b62"] ;
9 -> 10 ;
11 [label="entropy = 0.0\nsamples = 95\nvalue = [95, 0]\nclass = No", fillcolor="#e58139"] ;
9 -> 11 ;
12 [label="artist_typeEncoded <= 2.5\nentropy = 0.952\nsamples = 403\nvalue = [272.0, 458.5]\nclass = Si", fillcolor="#aed7f4"] ;
0 -> 12 [labeldistance=2.5, labelangle=-45, headlabel="False"] ;
13 [label="durationEncoded <= 1.5\nentropy = 0.871\nsamples = 183\nvalue = [108.0, 262.5]\nclass = Si", fillcolor="#8ac5f0"] ;
12 -> 13 ;
14 [label="moodEncoded <= 5.5\nentropy = 0.677\nsamples = 37\nvalue = [16.0, 73.5]\nclass = Si", fillcolor="#64b2eb"] ;
13 -> 14 ;
15 [label="entropy = 0.742\nsamples = 29\nvalue = [14.0, 52.5]\nclass = Si", fillcolor="#6eb7ec"] ;
14 -> 15 ;
16 [label="entropy = 0.426\nsamples = 8\nvalue = [2, 21]\nclass = Si", fillcolor="#4ca6e7"] ;
14 -> 16 ;
17 [label="genreEncoded <= 3.5\nentropy = 0.912\nsamples = 146\nvalue = [92.0, 189.0]\nclass = Si", fillcolor="#99cdf2"] ;
13 -> 17 ;
18 [label="entropy = 0.958\nsamples = 88\nvalue = [60.0, 98.0]\nclass = Si", fillcolor="#b2d9f5"] ;
17 -> 18 ;
19 [label="entropy = 0.827\nsamples = 58\nvalue = [32, 91]\nclass = Si", fillcolor="#7fbfee"] ;
17 -> 19 ;
20 [label="edadEncoded <= 3.5\nentropy = 0.994\nsamples = 220\nvalue = [164.0, 196.0]\nclass = Si", fillcolor="#dfeffb"] ;
12 -> 20 ;
21 [label="moodEncoded <= 3.5\nentropy = 0.988\nsamples = 208\nvalue = [152, 196]\nclass = Si", fillcolor="#d3e9f9"] ;
20 -> 21 ;
22 [label="entropy = 0.977\nsamples = 72\nvalue = [60, 42]\nclass = No", fillcolor="#f7d9c4"] ;
21 -> 22 ;
23 [label="entropy = 0.954\nsamples = 136\nvalue = [92, 154]\nclass = Si", fillcolor="#afd8f5"] ;
21 -> 23 ;
24 [label="entropy = 0.0\nsamples = 12\nvalue = [12, 0]\nclass = No", fillcolor="#e58139"] ;
20 -> 24 ;
}